digraph Tree {
node [shape=box, style="filled, rounded", color="black", fontname=helvetica] ;
edge [fontname=helvetica] ;
0 [label=<Glucose &le; 114.5<br/>gini = 0.5<br/>samples = 400<br/>value = [200, 200]<br/>class = 0>, fillcolor="#e5813900"] ;
1 [label=<Age &le; 30.5<br/>gini = 0.355<br/>samples = 169<br/>value = [130, 39]<br/>class = 0>, fillcolor="#e58139b3"] ;
0 -> 1 [labeldistance=2.5, labelangle=45, headlabel="True"] ;
2 [label=<BMI &le; 45.4<br/>gini = 0.234<br/>samples = 111<br/>value = [96, 15]<br/>class = 0>, fillcolor="#e58139d7"] ;
1 -> 2 ;
3 [label=<SkinThickness &le; 29.5<br/>gini = 0.21<br/>samples = 109<br/>value = [96, 13]<br/>class = 0>, fillcolor="#e58139dc"] ;
2 -> 3 ;
4 [label=<Pregnancies &le; 6.0<br/>gini = 0.102<br/>samples = 74<br/>value = [70, 4]<br/>class = 0>, fillcolor="#e58139f0"] ;
3 -> 4 ;
5 [label=<DiabetesPedigreeFunction &le; 0.668<br/>gini = 0.08<br/>samples = 72<br/>value = [69, 3]<br/>class = 0>, fillcolor="#e58139f4"] ;
4 -> 5 ;
6 [label=<BMI &le; 37.15<br/>gini = 0.033<br/>samples = 59<br/>value = [58, 1]<br/>class = 0>, fillcolor="#e58139fb"] ;
5 -> 6 ;
7 [label=<gini = 0.0<br/>samples = 55<br/>value = [55, 0]<br/>class = 0>, fillcolor="#e58139ff"] ;
6 -> 7 ;
8 [label=<BMI &le; 37.45<br/>gini = 0.375<br/>samples = 4<br/>value = [3, 1]<br/>class = 0>, fillcolor="#e58139aa"] ;
6 -> 8 ;
9 [label=<gini = 0.0<br/>samples = 1<br/>value = [0, 1]<br/>class = 1>, fillcolor="#399de5ff"] ;
8 -> 9 ;
10 [label=<gini = 0.0<br/>samples = 3<br/>value = [3, 0]<br/>class = 0>, fillcolor="#e58139ff"] ;
8 -> 10 ;
11 [label=<BMI &le; 23.55<br/>gini = 0.26<br/>samples = 13<br/>value = [11, 2]<br/>class = 0>, fillcolor="#e58139d1"] ;
5 -> 11 ;
12 [label=<gini = 0.0<br/>samples = 1<br/>value = [0, 1]<br/>class = 1>, fillcolor="#399de5ff"] ;
11 -> 12 ;
13 [label=<Age &le; 27.5<br/>gini = 0.153<br/>samples = 12<br/>value = [11, 1]<br/>class = 0>, fillcolor="#e58139e8"] ;
11 -> 13 ;
14 [label=<gini = 0.0<br/>samples = 10<br/>value = [10, 0]<br/>class = 0>, fillcolor="#e58139ff"] ;
13 -> 14 ;
15 [label=<BMI &le; 28.55<br/>gini = 0.5<br/>samples = 2<br/>value = [1, 1]<br/>class = 0>, fillcolor="#e5813900"] ;
13 -> 15 ;
16 [label=<gini = 0.0<br/>samples = 1<br/>value = [1, 0]<br/>class = 0>, fillcolor="#e58139ff"] ;
15 -> 16 ;
17 [label=<gini = 0.0<br/>samples = 1<br/>value = [0, 1]<br/>class = 1>, fillcolor="#399de5ff"] ;
15 -> 17 ;
18 [label=<Glucose &le; 105.5<br/>gini = 0.5<br/>samples = 2<br/>value = [1, 1]<br/>class = 0>, fillcolor="#e5813900"] ;
4 -> 18 ;
19 [label=<gini = 0.0<br/>samples = 1<br/>value = [1, 0]<br/>class = 0>, fillcolor="#e58139ff"] ;
18 -> 19 ;
20 [label=<gini = 0.0<br/>samples = 1<br/>value = [0, 1]<br/>class = 1>, fillcolor="#399de5ff"] ;
18 -> 20 ;
21 [label=<DiabetesPedigreeFunction &le; 0.475<br/>gini = 0.382<br/>samples = 35<br/>value = [26, 9]<br/>class = 0>, fillcolor="#e58139a7"] ;
3 -> 21 ;
22 [label=<BloodPressure &le; 54.0<br/>gini = 0.18<br/>samples = 20<br/>value = [18, 2]<br/>class = 0>, fillcolor="#e58139e3"] ;
21 -> 22 ;
23 [label=<gini = 0.0<br/>samples = 1<br/>value = [0, 1]<br/>class = 1>, fillcolor="#399de5ff"] ;
22 -> 23 ;
24 [label=<Glucose &le; 111.5<br/>gini = 0.1<br/>samples = 19<br/>value = [18, 1]<br/>class = 0>, fillcolor="#e58139f1"] ;
22 -> 24 ;
25 [label=<gini = 0.0<br/>samples = 16<br/>value = [16, 0]<br/>class = 0>, fillcolor="#e58139ff"] ;
24 -> 25 ;
26 [label=<BMI &le; 34.85<br/>gini = 0.444<br/>samples = 3<br/>value = [2, 1]<br/>class = 0>, fillcolor="#e581397f"] ;
24 -> 26 ;
27 [label=<gini = 0.0<br/>samples = 1<br/>value = [0, 1]<br/>class = 1>, fillcolor="#399de5ff"] ;
26 -> 27 ;
28 [label=<gini = 0.0<br/>samples = 2<br/>value = [2, 0]<br/>class = 0>, fillcolor="#e58139ff"] ;
26 -> 28 ;
29 [label=<BloodPressure &le; 65.0<br/>gini = 0.498<br/>samples = 15<br/>value = [8, 7]<br/>class = 0>, fillcolor="#e5813920"] ;
21 -> 29 ;
30 [label=<Insulin &le; 99.5<br/>gini = 0.32<br/>samples = 5<br/>value = [1, 4]<br/>class = 1>, fillcolor="#399de5bf"] ;
29 -> 30 ;
31 [label=<gini = 0.0<br/>samples = 3<br/>value = [0, 3]<br/>class = 1>, fillcolor="#399de5ff"] ;
30 -> 31 ;
32 [label=<SkinThickness &le; 34.0<br/>gini = 0.5<br/>samples = 2<br/>value = [1, 1]<br/>class = 0>, fillcolor="#e5813900"] ;
30 -> 32 ;
33 [label=<gini = 0.0<br/>samples = 1<br/>value = [0, 1]<br/>class = 1>, fillcolor="#399de5ff"] ;
32 -> 33 ;
34 [label=<gini = 0.0<br/>samples = 1<br/>value = [1, 0]<br/>class = 0>, fillcolor="#e58139ff"] ;
32 -> 34 ;
35 [label=<Age &le; 26.0<br/>gini = 0.42<br/>samples = 10<br/>value = [7, 3]<br/>class = 0>, fillcolor="#e5813992"] ;
29 -> 35 ;
36 [label=<gini = 0.0<br/>samples = 6<br/>value = [6, 0]<br/>class = 0>, fillcolor="#e58139ff"] ;
35 -> 36 ;
37 [label=<SkinThickness &le; 48.5<br/>gini = 0.375<br/>samples = 4<br/>value = [1, 3]<br/>class = 1>, fillcolor="#399de5aa"] ;
35 -> 37 ;
38 [label=<gini = 0.0<br/>samples = 3<br/>value = [0, 3]<br/>class = 1>, fillcolor="#399de5ff"] ;
37 -> 38 ;
39 [label=<gini = 0.0<br/>samples = 1<br/>value = [1, 0]<br/>class = 0>, fillcolor="#e58139ff"] ;
37 -> 39 ;
40 [label=<gini = 0.0<br/>samples = 2<br/>value = [0, 2]<br/>class = 1>, fillcolor="#399de5ff"] ;
2 -> 40 ;
41 [label=<DiabetesPedigreeFunction &le; 0.863<br/>gini = 0.485<br/>samples = 58<br/>value = [34, 24]<br/>class = 0>, fillcolor="#e581394b"] ;
1 -> 41 ;
42 [label=<Glucose &le; 94.5<br/>gini = 0.444<br/>samples = 51<br/>value = [34, 17]<br/>class = 0>, fillcolor="#e581397f"] ;
41 -> 42 ;
43 [label=<BMI &le; 38.65<br/>gini = 0.198<br/>samples = 18<br/>value = [16, 2]<br/>class = 0>, fillcolor="#e58139df"] ;
42 -> 43 ;
44 [label=<gini = 0.0<br/>samples = 16<br/>value = [16, 0]<br/>class = 0>, fillcolor="#e58139ff"] ;
43 -> 44 ;
45 [label=<gini = 0.0<br/>samples = 2<br/>value = [0, 2]<br/>class = 1>, fillcolor="#399de5ff"] ;
43 -> 45 ;
46 [label=<BMI &le; 27.35<br/>gini = 0.496<br/>samples = 33<br/>value = [18, 15]<br/>class = 0>, fillcolor="#e581392a"] ;
42 -> 46 ;
47 [label=<gini = 0.0<br/>samples = 5<br/>value = [5, 0]<br/>class = 0>, fillcolor="#e58139ff"] ;
46 -> 47 ;
48 [label=<Age &le; 44.0<br/>gini = 0.497<br/>samples = 28<br/>value = [13, 15]<br/>class = 1>, fillcolor="#399de522"] ;
46 -> 48 ;
49 [label=<Glucose &le; 108.5<br/>gini = 0.415<br/>samples = 17<br/>value = [5, 12]<br/>class = 1>, fillcolor="#399de595"] ;
48 -> 49 ;
50 [label=<BMI &le; 32.4<br/>gini = 0.496<br/>samples = 11<br/>value = [5, 6]<br/>class = 1>, fillcolor="#399de52a"] ;
49 -> 50 ;
51 [label=<gini = 0.0<br/>samples = 3<br/>value = [0, 3]<br/>class = 1>, fillcolor="#399de5ff"] ;
50 -> 51 ;
52 [label=<BMI &le; 38.9<br/>gini = 0.469<br/>samples = 8<br/>value = [5, 3]<br/>class = 0>, fillcolor="#e5813966"] ;
50 -> 52 ;
53 [label=<Pregnancies &le; 2.5<br/>gini = 0.278<br/>samples = 6<br/>value = [5, 1]<br/>class = 0>, fillcolor="#e58139cc"] ;
52 -> 53 ;
54 [label=<gini = 0.0<br/>samples = 1<br/>value = [0, 1]<br/>class = 1>, fillcolor="#399de5ff"] ;
53 -> 54 ;
55 [label=<gini = 0.0<br/>samples = 5<br/>value = [5, 0]<br/>class = 0>, fillcolor="#e58139ff"] ;
53 -> 55 ;
56 [label=<gini = 0.0<br/>samples = 2<br/>value = [0, 2]<br/>class = 1>, fillcolor="#399de5ff"] ;
52 -> 56 ;
57 [label=<gini = 0.0<br/>samples = 6<br/>value = [0, 6]<br/>class = 1>, fillcolor="#399de5ff"] ;
49 -> 57 ;
58 [label=<DiabetesPedigreeFunction &le; 0.4<br/>gini = 0.397<br/>samples = 11<br/>value = [8, 3]<br/>class = 0>, fillcolor="#e581399f"] ;
48 -> 58 ;
59 [label=<gini = 0.0<br/>samples = 5<br/>value = [5, 0]<br/>class = 0>, fillcolor="#e58139ff"] ;
58 -> 59 ;
60 [label=<BMI &le; 36.7<br/>gini = 0.5<br/>samples = 6<br/>value = [3, 3]<br/>class = 0>, fillcolor="#e5813900"] ;
58 -> 60 ;
61 [label=<BMI &le; 31.45<br/>gini = 0.375<br/>samples = 4<br/>value = [1, 3]<br/>class = 1>, fillcolor="#399de5aa"] ;
60 -> 61 ;
62 [label=<SkinThickness &le; 16.5<br/>gini = 0.5<br/>samples = 2<br/>value = [1, 1]<br/>class = 0>, fillcolor="#e5813900"] ;
61 -> 62 ;
63 [label=<gini = 0.0<br/>samples = 1<br/>value = [0, 1]<br/>class = 1>, fillcolor="#399de5ff"] ;
62 -> 63 ;
64 [label=<gini = 0.0<br/>samples = 1<br/>value = [1, 0]<br/>class = 0>, fillcolor="#e58139ff"] ;
62 -> 64 ;
65 [label=<gini = 0.0<br/>samples = 2<br/>value = [0, 2]<br/>class = 1>, fillcolor="#399de5ff"] ;
61 -> 65 ;
66 [label=<gini = 0.0<br/>samples = 2<br/>value = [2, 0]<br/>class = 0>, fillcolor="#e58139ff"] ;
60 -> 66 ;
67 [label=<gini = 0.0<br/>samples = 7<br/>value = [0, 7]<br/>class = 1>, fillcolor="#399de5ff"] ;
41 -> 67 ;
68 [label=<Age &le; 26.5<br/>gini = 0.422<br/>samples = 231<br/>value = [70, 161]<br/>class = 1>, fillcolor="#399de590"] ;
0 -> 68 [labeldistance=2.5, labelangle=-45, headlabel="False"] ;
69 [label=<Glucose &le; 127.5<br/>gini = 0.5<br/>samples = 66<br/>value = [34, 32]<br/>class = 0>, fillcolor="#e581390f"] ;
68 -> 69 ;
70 [label=<SkinThickness &le; 9.0<br/>gini = 0.266<br/>samples = 19<br/>value = [16, 3]<br/>class = 0>, fillcolor="#e58139cf"] ;
69 -> 70 ;
71 [label=<DiabetesPedigreeFunction &le; 0.799<br/>gini = 0.375<br/>samples = 4<br/>value = [1, 3]<br/>class = 1>, fillcolor="#399de5aa"] ;
70 -> 71 ;
72 [label=<gini = 0.0<br/>samples = 3<br/>value = [0, 3]<br/>class = 1>, fillcolor="#399de5ff"] ;
71 -> 72 ;
73 [label=<gini = 0.0<br/>samples = 1<br/>value = [1, 0]<br/>class = 0>, fillcolor="#e58139ff"] ;
71 -> 73 ;
74 [label=<gini = 0.0<br/>samples = 15<br/>value = [15, 0]<br/>class = 0>, fillcolor="#e58139ff"] ;
70 -> 74 ;
75 [label=<BMI &le; 34.45<br/>gini = 0.473<br/>samples = 47<br/>value = [18, 29]<br/>class = 1>, fillcolor="#399de561"] ;
69 -> 75 ;
76 [label=<BloodPressure &le; 56.0<br/>gini = 0.463<br/>samples = 22<br/>value = [14, 8]<br/>class = 0>, fillcolor="#e581396d"] ;
75 -> 76 ;
77 [label=<gini = 0.0<br/>samples = 2<br/>value = [0, 2]<br/>class = 1>, fillcolor="#399de5ff"] ;
76 -> 77 ;
78 [label=<SkinThickness &le; 32.0<br/>gini = 0.42<br/>samples = 20<br/>value = [14, 6]<br/>class = 0>, fillcolor="#e5813992"] ;
76 -> 78 ;
79 [label=<DiabetesPedigreeFunction &le; 1.142<br/>gini = 0.26<br/>samples = 13<br/>value = [11, 2]<br/>class = 0>, fillcolor="#e58139d1"] ;
78 -> 79 ;
80 [label=<SkinThickness &le; 7.0<br/>gini = 0.153<br/>samples = 12<br/>value = [11, 1]<br/>class = 0>, fillcolor="#e58139e8"] ;
79 -> 80 ;
81 [label=<DiabetesPedigreeFunction &le; 0.434<br/>gini = 0.444<br/>samples = 3<br/>value = [2, 1]<br/>class = 0>, fillcolor="#e581397f"] ;
80 -> 81 ;
82 [label=<gini = 0.0<br/>samples = 2<br/>value = [2, 0]<br/>class = 0>, fillcolor="#e58139ff"] ;
81 -> 82 ;
83 [label=<gini = 0.0<br/>samples = 1<br/>value = [0, 1]<br/>class = 1>, fillcolor="#399de5ff"] ;
81 -> 83 ;
84 [label=<gini = 0.0<br/>samples = 9<br/>value = [9, 0]<br/>class = 0>, fillcolor="#e58139ff"] ;
80 -> 84 ;
85 [label=<gini = 0.0<br/>samples = 1<br/>value = [0, 1]<br/>class = 1>, fillcolor="#399de5ff"] ;
79 -> 85 ;
86 [label=<BMI &le; 30.1<br/>gini = 0.49<br/>samples = 7<br/>value = [3, 4]<br/>class = 1>, fillcolor="#399de540"] ;
78 -> 86 ;
87 [label=<gini = 0.0<br/>samples = 2<br/>value = [2, 0]<br/>class = 0>, fillcolor="#e58139ff"] ;
86 -> 87 ;
88 [label=<DiabetesPedigreeFunction &le; 0.183<br/>gini = 0.32<br/>samples = 5<br/>value = [1, 4]<br/>class = 1>, fillcolor="#399de5bf"] ;
86 -> 88 ;
89 [label=<gini = 0.0<br/>samples = 1<br/>value = [1, 0]<br/>class = 0>, fillcolor="#e58139ff"] ;
88 -> 89 ;
90 [label=<gini = 0.0<br/>samples = 4<br/>value = [0, 4]<br/>class = 1>, fillcolor="#399de5ff"] ;
88 -> 90 ;
91 [label=<SkinThickness &le; 40.5<br/>gini = 0.269<br/>samples = 25<br/>value = [4, 21]<br/>class = 1>, fillcolor="#399de5ce"] ;
75 -> 91 ;
92 [label=<gini = 0.0<br/>samples = 14<br/>value = [0, 14]<br/>class = 1>, fillcolor="#399de5ff"] ;
91 -> 92 ;
93 [label=<BMI &le; 41.35<br/>gini = 0.463<br/>samples = 11<br/>value = [4, 7]<br/>class = 1>, fillcolor="#399de56d"] ;
91 -> 93 ;
94 [label=<Pregnancies &le; 2.5<br/>gini = 0.444<br/>samples = 6<br/>value = [4, 2]<br/>class = 0>, fillcolor="#e581397f"] ;
93 -> 94 ;
95 [label=<BloodPressure &le; 56.0<br/>gini = 0.32<br/>samples = 5<br/>value = [4, 1]<br/>class = 0>, fillcolor="#e58139bf"] ;
94 -> 95 ;
96 [label=<gini = 0.0<br/>samples = 1<br/>value = [0, 1]<br/>class = 1>, fillcolor="#399de5ff"] ;
95 -> 96 ;
97 [label=<gini = 0.0<br/>samples = 4<br/>value = [4, 0]<br/>class = 0>, fillcolor="#e58139ff"] ;
95 -> 97 ;
98 [label=<gini = 0.0<br/>samples = 1<br/>value = [0, 1]<br/>class = 1>, fillcolor="#399de5ff"] ;
94 -> 98 ;
99 [label=<gini = 0.0<br/>samples = 5<br/>value = [0, 5]<br/>class = 1>, fillcolor="#399de5ff"] ;
93 -> 99 ;
100 [label=<DiabetesPedigreeFunction &le; 1.379<br/>gini = 0.341<br/>samples = 165<br/>value = [36, 129]<br/>class = 1>, fillcolor="#399de5b8"] ;
68 -> 100 ;
101 [label=<DiabetesPedigreeFunction &le; 0.309<br/>gini = 0.314<br/>samples = 159<br/>value = [31, 128]<br/>class = 1>, fillcolor="#399de5c1"] ;
100 -> 101 ;
102 [label=<DiabetesPedigreeFunction &le; 0.269<br/>gini = 0.448<br/>samples = 62<br/>value = [21, 41]<br/>class = 1>, fillcolor="#399de57c"] ;
101 -> 102 ;
103 [label=<Age &le; 59.5<br/>gini = 0.385<br/>samples = 50<br/>value = [13, 37]<br/>class = 1>, fillcolor="#399de5a5"] ;
102 -> 103 ;
104 [label=<BMI &le; 26.3<br/>gini = 0.298<br/>samples = 44<br/>value = [8, 36]<br/>class = 1>, fillcolor="#399de5c6"] ;
103 -> 104 ;
105 [label=<BMI &le; 25.15<br/>gini = 0.48<br/>samples = 10<br/>value = [4, 6]<br/>class = 1>, fillcolor="#399de555"] ;
104 -> 105 ;
106 [label=<gini = 0.0<br/>samples = 6<br/>value = [0, 6]<br/>class = 1>, fillcolor="#399de5ff"] ;
105 -> 106 ;
107 [label=<gini = 0.0<br/>samples = 4<br/>value = [4, 0]<br/>class = 0>, fillcolor="#e58139ff"] ;
105 -> 107 ;
108 [label=<SkinThickness &le; 9.0<br/>gini = 0.208<br/>samples = 34<br/>value = [4, 30]<br/>class = 1>, fillcolor="#399de5dd"] ;
104 -> 108 ;
109 [label=<Pregnancies &le; 9.5<br/>gini = 0.346<br/>samples = 18<br/>value = [4, 14]<br/>class = 1>, fillcolor="#399de5b6"] ;
108 -> 109 ;
110 [label=<BMI &le; 34.2<br/>gini = 0.219<br/>samples = 16<br/>value = [2, 14]<br/>class = 1>, fillcolor="#399de5db"] ;
109 -> 110 ;
111 [label=<gini = 0.0<br/>samples = 9<br/>value = [0, 9]<br/>class = 1>, fillcolor="#399de5ff"] ;
110 -> 111 ;
112 [label=<DiabetesPedigreeFunction &le; 0.197<br/>gini = 0.408<br/>samples = 7<br/>value = [2, 5]<br/>class = 1>, fillcolor="#399de599"] ;
110 -> 112 ;
113 [label=<DiabetesPedigreeFunction &le; 0.14<br/>gini = 0.444<br/>samples = 3<br/>value = [2, 1]<br/>class = 0>, fillcolor="#e581397f"] ;
112 -> 113 ;
114 [label=<gini = 0.0<br/>samples = 1<br/>value = [0, 1]<br/>class = 1>, fillcolor="#399de5ff"] ;
113 -> 114 ;
115 [label=<gini = 0.0<br/>samples = 2<br/>value = [2, 0]<br/>class = 0>, fillcolor="#e58139ff"] ;
113 -> 115 ;
116 [label=<gini = 0.0<br/>samples = 4<br/>value = [0, 4]<br/>class = 1>, fillcolor="#399de5ff"] ;
112 -> 116 ;
117 [label=<gini = 0.0<br/>samples = 2<br/>value = [2, 0]<br/>class = 0>, fillcolor="#e58139ff"] ;
109 -> 117 ;
118 [label=<gini = 0.0<br/>samples = 16<br/>value = [0, 16]<br/>class = 1>, fillcolor="#399de5ff"] ;
108 -> 118 ;
119 [label=<Age &le; 69.5<br/>gini = 0.278<br/>samples = 6<br/>value = [5, 1]<br/>class = 0>, fillcolor="#e58139cc"] ;
103 -> 119 ;
120 [label=<gini = 0.0<br/>samples = 5<br/>value = [5, 0]<br/>class = 0>, fillcolor="#e58139ff"] ;
119 -> 120 ;
121 [label=<gini = 0.0<br/>samples = 1<br/>value = [0, 1]<br/>class = 1>, fillcolor="#399de5ff"] ;
119 -> 121 ;
122 [label=<Pregnancies &le; 4.5<br/>gini = 0.444<br/>samples = 12<br/>value = [8, 4]<br/>class = 0>, fillcolor="#e581397f"] ;
102 -> 122 ;
123 [label=<gini = 0.0<br/>samples = 4<br/>value = [4, 0]<br/>class = 0>, fillcolor="#e58139ff"] ;
122 -> 123 ;
124 [label=<Glucose &le; 131.0<br/>gini = 0.5<br/>samples = 8<br/>value = [4, 4]<br/>class = 0>, fillcolor="#e5813900"] ;
122 -> 124 ;
125 [label=<gini = 0.0<br/>samples = 3<br/>value = [3, 0]<br/>class = 0>, fillcolor="#e58139ff"] ;
124 -> 125 ;
126 [label=<BMI &le; 28.5<br/>gini = 0.32<br/>samples = 5<br/>value = [1, 4]<br/>class = 1>, fillcolor="#399de5bf"] ;
124 -> 126 ;
127 [label=<gini = 0.0<br/>samples = 1<br/>value = [1, 0]<br/>class = 0>, fillcolor="#e58139ff"] ;
126 -> 127 ;
128 [label=<gini = 0.0<br/>samples = 4<br/>value = [0, 4]<br/>class = 1>, fillcolor="#399de5ff"] ;
126 -> 128 ;
129 [label=<BMI &le; 11.7<br/>gini = 0.185<br/>samples = 97<br/>value = [10, 87]<br/>class = 1>, fillcolor="#399de5e2"] ;
101 -> 129 ;
130 [label=<gini = 0.0<br/>samples = 1<br/>value = [1, 0]<br/>class = 0>, fillcolor="#e58139ff"] ;
129 -> 130 ;
131 [label=<Glucose &le; 129.5<br/>gini = 0.17<br/>samples = 96<br/>value = [9, 87]<br/>class = 1>, fillcolor="#399de5e5"] ;
129 -> 131 ;
132 [label=<Insulin &le; 225.5<br/>gini = 0.32<br/>samples = 25<br/>value = [5, 20]<br/>class = 1>, fillcolor="#399de5bf"] ;
131 -> 132 ;
133 [label=<Pregnancies &le; 3.5<br/>gini = 0.236<br/>samples = 22<br/>value = [3, 19]<br/>class = 1>, fillcolor="#399de5d7"] ;
132 -> 133 ;
134 [label=<gini = 0.0<br/>samples = 9<br/>value = [0, 9]<br/>class = 1>, fillcolor="#399de5ff"] ;
133 -> 134 ;
135 [label=<Insulin &le; 47.0<br/>gini = 0.355<br/>samples = 13<br/>value = [3, 10]<br/>class = 1>, fillcolor="#399de5b3"] ;
133 -> 135 ;
136 [label=<gini = 0.0<br/>samples = 7<br/>value = [0, 7]<br/>class = 1>, fillcolor="#399de5ff"] ;
135 -> 136 ;
137 [label=<DiabetesPedigreeFunction &le; 0.692<br/>gini = 0.5<br/>samples = 6<br/>value = [3, 3]<br/>class = 0>, fillcolor="#e5813900"] ;
135 -> 137 ;
138 [label=<gini = 0.0<br/>samples = 3<br/>value = [3, 0]<br/>class = 0>, fillcolor="#e58139ff"] ;
137 -> 138 ;
139 [label=<gini = 0.0<br/>samples = 3<br/>value = [0, 3]<br/>class = 1>, fillcolor="#399de5ff"] ;
137 -> 139 ;
140 [label=<Glucose &le; 125.0<br/>gini = 0.444<br/>samples = 3<br/>value = [2, 1]<br/>class = 0>, fillcolor="#e581397f"] ;
132 -> 140 ;
141 [label=<gini = 0.0<br/>samples = 1<br/>value = [0, 1]<br/>class = 1>, fillcolor="#399de5ff"] ;
140 -> 141 ;
142 [label=<gini = 0.0<br/>samples = 2<br/>value = [2, 0]<br/>class = 0>, fillcolor="#e58139ff"] ;
140 -> 142 ;
143 [label=<BloodPressure &le; 107.0<br/>gini = 0.106<br/>samples = 71<br/>value = [4, 67]<br/>class = 1>, fillcolor="#399de5f0"] ;
131 -> 143 ;
144 [label=<SkinThickness &le; 30.0<br/>gini = 0.083<br/>samples = 69<br/>value = [3, 66]<br/>class = 1>, fillcolor="#399de5f3"] ;
143 -> 144 ;
145 [label=<gini = 0.0<br/>samples = 38<br/>value = [0, 38]<br/>class = 1>, fillcolor="#399de5ff"] ;
144 -> 145 ;
146 [label=<BMI &le; 29.7<br/>gini = 0.175<br/>samples = 31<br/>value = [3, 28]<br/>class = 1>, fillcolor="#399de5e4"] ;
144 -> 146 ;
147 [label=<DiabetesPedigreeFunction &le; 0.588<br/>gini = 0.5<br/>samples = 2<br/>value = [1, 1]<br/>class = 0>, fillcolor="#e5813900"] ;
146 -> 147 ;
148 [label=<gini = 0.0<br/>samples = 1<br/>value = [0, 1]<br/>class = 1>, fillcolor="#399de5ff"] ;
147 -> 148 ;
149 [label=<gini = 0.0<br/>samples = 1<br/>value = [1, 0]<br/>class = 0>, fillcolor="#e58139ff"] ;
147 -> 149 ;
150 [label=<DiabetesPedigreeFunction &le; 0.348<br/>gini = 0.128<br/>samples = 29<br/>value = [2, 27]<br/>class = 1>, fillcolor="#399de5ec"] ;
146 -> 150 ;
151 [label=<SkinThickness &le; 44.5<br/>gini = 0.5<br/>samples = 2<br/>value = [1, 1]<br/>class = 0>, fillcolor="#e5813900"] ;
150 -> 151 ;
152 [label=<gini = 0.0<br/>samples = 1<br/>value = [1, 0]<br/>class = 0>, fillcolor="#e58139ff"] ;
151 -> 152 ;
153 [label=<gini = 0.0<br/>samples = 1<br/>value = [0, 1]<br/>class = 1>, fillcolor="#399de5ff"] ;
151 -> 153 ;
154 [label=<BloodPressure &le; 63.0<br/>gini = 0.071<br/>samples = 27<br/>value = [1, 26]<br/>class = 1>, fillcolor="#399de5f5"] ;
150 -> 154 ;
155 [label=<Age &le; 33.5<br/>gini = 0.5<br/>samples = 2<br/>value = [1, 1]<br/>class = 0>, fillcolor="#e5813900"] ;
154 -> 155 ;
156 [label=<gini = 0.0<br/>samples = 1<br/>value = [1, 0]<br/>class = 0>, fillcolor="#e58139ff"] ;
155 -> 156 ;
157 [label=<gini = 0.0<br/>samples = 1<br/>value = [0, 1]<br/>class = 1>, fillcolor="#399de5ff"] ;
155 -> 157 ;
158 [label=<gini = 0.0<br/>samples = 25<br/>value = [0, 25]<br/>class = 1>, fillcolor="#399de5ff"] ;
154 -> 158 ;
159 [label=<Glucose &le; 180.0<br/>gini = 0.5<br/>samples = 2<br/>value = [1, 1]<br/>class = 0>, fillcolor="#e5813900"] ;
143 -> 159 ;
160 [label=<gini = 0.0<br/>samples = 1<br/>value = [0, 1]<br/>class = 1>, fillcolor="#399de5ff"] ;
159 -> 160 ;
161 [label=<gini = 0.0<br/>samples = 1<br/>value = [1, 0]<br/>class = 0>, fillcolor="#e58139ff"] ;
159 -> 161 ;
162 [label=<BMI &le; 41.95<br/>gini = 0.278<br/>samples = 6<br/>value = [5, 1]<br/>class = 0>, fillcolor="#e58139cc"] ;
100 -> 162 ;
163 [label=<gini = 0.0<br/>samples = 5<br/>value = [5, 0]<br/>class = 0>, fillcolor="#e58139ff"] ;
162 -> 163 ;
164 [label=<gini = 0.0<br/>samples = 1<br/>value = [0, 1]<br/>class = 1>, fillcolor="#399de5ff"] ;
162 -> 164 ;
}